network unknown {
}
variable A {
    type discrete [ 2 ] { 0, 1 };
}
variable B {
    type discrete [ 2 ] { 0, 1 };
}
variable C {
    type discrete [ 2 ] { 0, 1 };
}
variable D {
    type discrete [ 2 ] { 0, 1 };
}
probability ( A ) {
    table 0.6381382257983801, 0.3618617742016198 ;
}
probability ( B | A ) {
    ( 0 ) 0.47407685350981643, 0.5259231464901836;
    ( 1 ) 0.38625285252692243, 0.6137471474730776;

}
probability ( C | B ) {
    ( 0 ) 0.47407685350981643, 0.5259231464901836;
    ( 1 ) 0.38625285252692243, 0.6137471474730776;

}
probability ( D | C ) {
    ( 0 ) 0.47407685350981643, 0.5259231464901836;
    ( 1 ) 0.38625285252692243, 0.6137471474730776;

}
